<?xml version="1.0"?>
<opencv_storage>
<opencv_ml_knn>
  <format>3</format>
  <is_classifier>1</is_classifier>
  <default_k>10</default_k>
  <samples type_id="opencv-matrix">
    <rows>411</rows>
    <cols>32</cols>
    <dt>f</dt>
    <data>
      162. 176. 177. 209. 237. 237. 240. 83. 91. 123. 48. 24. 158. 153.
      76. 58. 137. 27. 83. 24. 19. 126. 242. 210. 15. 24. 16. 126. 216.
      8. 210. 166. 96. 32. 144. 68. 0. 9. 64. 0. 98. 160. 34. 8. 86. 51.
      64. 18. 1. 84. 104. 8. 0. 96. 136. 0. 137. 160. 5. 48. 64. 32. 66.
      32. 96. 48. 185. 101. 40. 77. 81. 16. 98. 188. 166. 8. 215. 55.
      64. 50. 129. 84. 108. 24. 9. 96. 249. 0. 203. 233. 101. 52. 64.
      32. 70. 51. 105. 48. 240. 68. 109. 29. 120. 24. 107. 232. 180. 40.
      139. 61. 214. 54. 142. 213. 252. 8. 132. 98. 234. 208. 95. 217. 5.
      186. 66. 172. 66. 245. 104. 48. 185. 100. 41. 92. 65. 19. 99. 232.
      166. 8. 30. 55. 64. 182. 0. 148. 108. 8. 9. 96. 240. 0. 203. 217.
      37. 48. 66. 160. 70. 34. 105. 48. 152. 100. 41. 29. 80. 16. 107.
      168. 166. 8. 223. 51. 64. 178. 128. 212. 124. 24. 8. 98. 209. 0.
      203. 249. 5. 48. 106. 160. 74. 3. 24. 156. 187. 254. 21. 199. 86.
      242. 151. 74. 206. 3. 255. 255. 32. 64. 217. 250. 185. 3. 10. 171.
      26. 191. 243. 247. 138. 27. 18. 46. 52. 90. 2. 141. 43. 157. 214.
      130. 168. 103. 28. 65. 90. 2. 41. 170. 52. 64. 110. 43. 19. 129.
      210. 152. 20. 255. 36. 109. 154. 192. 21. 12. 177. 200. 0. 140.
      11. 191. 84. 135. 171. 248. 30. 64. 90. 194. 245. 207. 48. 64.
      127. 43. 19. 173. 163. 178. 91. 127. 125. 38. 139. 68. 61. 10. 49.
      160. 120. 48. 184. 100. 13. 77. 81. 24. 98. 168. 164. 8. 147. 17.
      64. 50. 137. 212. 108. 24. 8. 98. 217. 0. 219. 201. 37. 49. 96.
      232. 70. 34. 24. 4. 255. 237. 52. 10. 111. 48. 52. 162. 94. 2.
      215. 35. 144. 64. 118. 205. 63. 168. 168. 144. 65. 14. 228. 239.
      238. 128. 36. 170. 33. 33. 34. 160. 102. 153. 76. 139. 232. 200.
      95. 176. 240. 130. 200. 206. 116. 64. 121. 141. 119. 145. 138.
      243. 91. 209. 28. 24. 143. 172. 21. 8. 112. 128. 38. 172. 234.
      155. 252. 131. 170. 236. 94. 161. 248. 26. 240. 232. 120. 0. 217.
      234. 19. 145. 178. 250. 74. 255. 44. 22. 191. 232. 213. 10. 240.
      136. 0. 0. 175. 237. 28. 6. 233. 91. 38. 169. 214. 66. 213. 131.
      48. 74. 122. 12. 127. 136. 145. 217. 225. 76. 213. 171. 250. 192.
      164. 136. 49. 168. 34. 140. 50. 152. 213. 225. 176. 103. 158. 5.
      72. 19. 172. 184. 36. 64. 201. 59. 131. 145. 50. 186. 18. 247. 9.
      119. 154. 75. 145. 12. 189. 138. 16. 141. 27. 190. 20. 195. 83.
      230. 150. 5. 200. 2. 55. 251. 32. 64. 248. 122. 19. 193. 10. 187.
      18. 63. 249. 166. 154. 9. 49. 10. 52. 170. 96. 32. 144. 68. 0. 8.
      64. 0. 98. 176. 34. 8. 86. 51. 64. 18. 1. 84. 104. 24. 0. 96. 136.
      0. 137. 160. 69. 52. 64. 32. 66. 32. 120. 34. 210. 100. 77. 25.
      88. 74. 235. 164. 160. 9. 11. 201. 86. 150. 233. 197. 238. 148.
      12. 99. 195. 192. 222. 217. 7. 59. 99. 164. 106. 134. 145. 93. 31.
      189. 20. 134. 111. 55. 180. 130. 66. 70. 247. 51. 49. 97. 102.
      117. 61. 239. 233. 157. 17. 47. 225. 234. 238. 0. 44. 176. 33. 40.
      112. 48. 251. 100. 2. 76. 81. 80. 226. 228. 38. 8. 87. 151. 64.
      50. 162. 212. 104. 0. 1. 97. 184. 0. 219. 233. 5. 49. 96. 32. 70.
      114. 80. 20. 157. 229. 32. 78. 125. 48. 60. 170. 146. 96. 215. 55.
      128. 115. 182. 85. 125. 42. 33. 208. 209. 12. 237. 171. 111. 128.
      32. 224. 5. 49. 96. 48. 177. 68. 0. 77. 17. 0. 98. 228. 38. 8. 18.
      21. 64. 50. 0. 84. 104. 16. 1. 96. 241. 2. 201. 172. 5. 48. 64.
      34. 70. 114. 0. 44. 251. 223. 86. 143. 251. 64. 126. 160. 250. 66.
      80. 202. 52. 80. 126. 253. 19. 129. 130. 186. 156. 111. 117. 46.
      139. 40. 69. 170. 99. 160. 114. 160. 77. 205. 76. 75. 72. 232. 31.
      180. 224. 10. 211. 250. 84. 82. 91. 196. 123. 128. 10. 115. 203.
      209. 157. 186. 207. 61. 117. 136. 84. 130. 38. 140. 106. 154. 220.
      131. 170. 232. 30. 64. 88. 3. 240. 232. 56. 64. 121. 235. 19. 149.
      162. 186. 75. 255. 60. 22. 175. 232. 149. 10. 113. 136. 120. 33.
      152. 100. 13. 77. 83. 72. 98. 180. 172. 9. 87. 153. 66. 18. 168.
      213. 104. 64. 8. 99. 219. 16. 249. 229. 5. 61. 97. 42. 78. 2. 0.
      32. 255. 237. 108. 75. 232. 72. 126. 160. 242. 2. 213. 202. 84.
      66. 250. 221. 127. 129. 10. 243. 223. 73. 149. 186. 171. 8. 69.
      40. 99. 160. 105. 48. 25. 96. 0. 77. 65. 16. 114. 160. 38. 8. 150.
      19. 0. 48. 144. 20. 72. 8. 9. 96. 240. 16. 193. 201. 1. 48. 66. 0.
      71. 34. 96. 113. 248. 100. 124. 79. 91. 16. 107. 160. 188. 8. 215.
      29. 68. 48. 190. 213. 93. 106. 200. 34. 248. 76. 223. 189. 1. 60.
      68. 171. 66. 34. 218. 76. 118. 188. 38. 130. 124. 50. 189. 130.
      210. 130. 253. 47. 49. 67. 230. 245. 125. 227. 232. 205. 1. 238.
      242. 251. 234. 128. 38. 180. 33. 9. 97. 32. 153. 101. 32. 77. 65.
      16. 98. 160. 38. 8. 151. 19. 64. 50. 0. 84. 104. 24. 8. 96. 241.
      0. 201. 169. 5. 48. 64. 128. 70. 34. 96. 33. 185. 100. 13. 77. 82.
      8. 107. 160. 168. 8. 210. 57. 68. 50. 136. 212. 104. 72. 10. 98.
      218. 17. 235. 221. 5. 61. 64. 42. 66. 2. 96. 12. 157. 229. 12. 14.
      69. 55. 96. 162. 162. 8. 215. 51. 1. 123. 64. 196. 108. 40. 104.
      200. 209. 8. 225. 171. 101. 16. 160. 240. 66. 34. 104. 56. 187.
      118. 0. 204. 81. 18. 226. 164. 38. 8. 54. 215. 64. 50. 129. 118.
      104. 8. 1. 105. 178. 32. 203. 233. 21. 49. 64. 32. 70. 122. 1. 39.
      219. 237. 116. 3. 235. 88. 54. 128. 122. 66. 213. 99. 144. 96.
      126. 205. 22. 168. 129. 178. 205. 78. 36. 172. 171. 0. 109. 170.
      35. 161. 38. 176. 253. 251. 236. 173. 216. 217. 95. 57. 177. 120.
      214. 217. 92. 8. 221. 139. 87. 17. 155. 98. 90. 208. 15. 26. 153.
      254. 220. 201. 210. 131. 217. 85. 126. 101. 3. 94. 95. 48. 45.
      226. 166. 136. 95. 55. 0. 119. 54. 213. 253. 234. 232. 193. 61.
      142. 243. 251. 69. 17. 34. 178. 102. 50. 96. 50. 144. 68. 0. 9.
      64. 16. 98. 168. 34. 76. 70. 3. 64. 18. 1. 68. 108. 0. 0. 96. 136.
      0. 136. 160. 37. 48. 64. 0. 66. 1. 64. 32. 152. 36. 32. 12. 65.
      16. 42. 172. 162. 72. 151. 3. 64. 82. 128. 68. 108. 24. 8. 64.
      209. 0. 201. 184. 37. 48. 64. 0. 66. 34. 96. 56. 177. 68. 8. 76.
      17. 22. 98. 224. 38. 8. 18. 55. 64. 50. 0. 84. 120. 16. 1. 72.
      241. 0. 201. 168. 5. 48. 64. 32. 6. 114. 109. 113. 233. 68. 236.
      31. 207. 216. 67. 232. 181. 76. 91. 92. 223. 190. 216. 196. 84.
      110. 205. 35. 238. 136. 51. 217. 229. 188. 111. 255. 90. 117. 96.
      56. 185. 100. 40. 77. 81. 18. 34. 240. 36. 8. 23. 55. 64. 50. 133.
      117. 121. 24. 1. 64. 240. 0. 203. 137. 5. 52. 64. 160. 6. 114. 97.
      97. 145. 68. 0. 76. 67. 0. 98. 160. 42. 8. 86. 17. 64. 50. 0. 84.
      104. 74. 65. 32. 185. 0. 169. 168. 5. 48. 64. 34. 66. 32. 38. 160.
      176. 218. 205. 237. 208. 207. 223. 53. 161. 24. 142. 221. 92. 24.
      201. 27. 243. 17. 26. 106. 218. 209. 15. 88. 149. 127. 210. 76.
      214. 130. 88. 48. 188. 229. 40. 12. 121. 16. 46. 168. 182. 40.
      223. 55. 192. 82. 166. 85. 253. 8. 136. 208. 193. 0. 207. 251.
      103. 144. 2. 160. 3. 115. 96. 48. 145. 100. 8. 73. 81. 0. 34. 160.
      34. 8. 86. 19. 64. 50. 1. 84. 104. 8. 0. 96. 248. 0. 201. 136. 5.
      48. 64. 32. 70. 34. 64. 34. 25. 100. 32. 12. 81. 16. 32. 4. 34. 8.
      151. 3. 0. 82. 128. 213. 109. 8. 8. 64. 192. 0. 193. 249. 32. 16.
      64. 128. 71. 34. 64. 48. 185. 101. 40. 77. 81. 16. 98. 184. 182.
      40. 215. 23. 64. 50. 129. 212. 108. 8. 9. 96. 249. 0. 201. 137.
      37. 52. 64. 32. 70. 51. 17. 141. 11. 237. 20. 135. 239. 246. 20.
      64. 90. 66. 113. 227. 48. 96. 120. 106. 19. 237. 201. 184. 17. 63.
      229. 172. 170. 0. 61. 138. 49. 168. 2. 140. 38. 158. 93. 199. 174.
      230. 150. 66. 192. 2. 232. 254. 48. 65. 249. 107. 179. 131. 34.
      187. 26. 255. 57. 54. 218. 3. 17. 12. 117. 202. 104. 48. 177. 68.
      1. 92. 81. 16. 99. 240. 38. 8. 94. 55. 64. 182. 1. 84. 232. 24. 1.
      96. 184. 0. 203. 249. 69. 54. 66. 32. 70. 114. 120. 160. 56. 104.
      13. 77. 81. 216. 67. 180. 164. 8. 147. 17. 64. 50. 201. 212. 72.
      8. 10. 99. 250. 17. 219. 217. 5. 61. 112. 136. 70. 34. 34. 140.
      34. 154. 221. 199. 186. 230. 158. 1. 64. 2. 168. 250. 52. 64. 217.
      107. 19. 145. 34. 187. 90. 255. 61. 30. 159. 107. 145. 12. 52.
      202. 2. 169. 54. 152. 223. 193. 176. 199. 143. 29. 200. 3. 172.
      222. 102. 64. 201. 59. 227. 17. 18. 43. 18. 245. 57. 80. 30. 123.
      144. 12. 165. 202. 64. 152. 157. 191. 44. 141. 89. 188. 158. 89.
      208. 72. 247. 255. 40. 64. 213. 123. 127. 9. 131. 104. 219. 53.
      205. 187. 123. 56. 16. 8. 17. 171. 96. 48. 145. 68. 0. 73. 65. 0.
      98. 228. 34. 12. 86. 36. 66. 18. 1. 68. 104. 0. 1. 96. 248. 0.
      137. 160. 5. 48. 64. 32. 70. 112. 86. 34. 198. 156. 203. 131. 168.
      72. 190. 176. 192. 231. 224. 226. 228. 198. 123. 237. 234. 149. 6.
      211. 142. 216. 28. 34. 143. 175. 37. 36. 43. 132. 105. 48. 249.
      100. 41. 124. 89. 17. 43. 237. 55. 60. 31. 55. 198. 186. 134. 21.
      253. 0. 145. 64. 184. 0. 203. 217. 49. 179. 74. 160. 78. 115. 96.
      32. 144. 68. 0. 9. 0. 0. 98. 160. 34. 8. 70. 3. 64. 18. 0. 68.
      104. 0. 0. 96. 192. 0. 136. 128. 5. 48. 64. 0. 66. 0. 104. 50.
      209. 4. 33. 88. 19. 16. 99. 236. 62. 236. 79. 38. 194. 150. 22.
      68. 236. 64. 133. 64. 172. 0. 138. 245. 37. 179. 66. 166. 14. 85.
      252. 12. 254. 244. 141. 126. 92. 34. 233. 162. 166. 8. 95. 63. 21.
      123. 224. 245. 125. 42. 104. 193. 177. 136. 211. 251. 71. 19. 162.
      113. 100. 34. 125. 85. 121. 101. 180. 94. 79. 56. 97. 232. 190.
      76. 83. 49. 145. 180. 28. 196. 84. 110. 201. 176. 121. 14. 227.
      237. 37. 16. 107. 243. 66. 49. 237. 113. 253. 68. 45. 95. 71. 152.
      65. 248. 181. 76. 83. 93. 221. 191. 28. 196. 84. 110. 201. 102.
      249. 136. 99. 217. 101. 60. 107. 187. 82. 117. 17. 141. 9. 239.
      52. 135. 79. 248. 22. 72. 222. 66. 243. 103. 184. 96. 88. 234. 23.
      234. 201. 184. 105. 63. 233. 175. 163. 144. 48. 170. 112. 41. 96.
      48. 145. 68. 0. 72. 1. 2. 98. 228. 42. 8. 22. 23. 64. 50. 0. 84.
      104. 16. 1. 64. 240. 2. 137. 164. 5. 48. 72. 2. 70. 112. 82. 8.
      166. 157. 15. 194. 188. 98. 157. 2. 194. 3. 204. 250. 52. 66. 104.
      229. 59. 161. 32. 217. 23. 204. 149. 106. 203. 1. 53. 108. 53. 66.
      105. 48. 249. 100. 105. 93. 81. 24. 107. 232. 182. 72. 222. 189.
      196. 54. 135. 244. 252. 8. 137. 98. 251. 192. 207. 217. 69. 58.
      66. 160. 70. 55. 122. 33. 82. 224. 91. 9. 120. 65. 173. 37. 243.
      11. 15. 139. 100. 210. 234. 141. 239. 240. 94. 43. 129. 192. 150.
      241. 2. 123. 103. 2. 111. 130. 90. 49. 242. 229. 50. 8. 122. 80.
      47. 160. 190. 169. 207. 159. 64. 82. 182. 213. 255. 224. 128. 1.
      145. 192. 254. 253. 15. 178. 38. 134. 39. 83. 100. 178. 185. 82.
      232. 105. 17. 157. 107. 253. 53. 57. 82. 119. 206. 58. 3. 86. 237.
      16. 18. 64. 235. 112. 79. 17. 117. 255. 192. 193. 134. 115. 96.
      32. 145. 68. 0. 76. 65. 0. 98. 160. 34. 8. 86. 51. 64. 50. 0. 84.
      104. 8. 1. 96. 185. 0. 201. 168. 69. 48. 64. 32. 70. 34. 112. 32.
      190. 116. 9. 205. 81. 72. 227. 164. 166. 9. 83. 219. 98. 82. 233.
      244. 105. 16. 8. 99. 154. 2. 219. 229. 5. 59. 97. 0. 110. 2. 2.
      12. 2. 159. 86. 131. 186. 102. 158. 0. 82. 130. 236. 238. 48. 64.
      127. 107. 19. 129. 34. 184. 10. 255. 60. 38. 154. 128. 21. 12. 49.
      137. 208. 90. 159. 245. 34. 14. 61. 54. 188. 186. 18. 228. 247.
      55. 129. 123. 38. 117. 125. 106. 225. 213. 161. 104. 197. 163.
      126. 128. 40. 241. 1. 57. 122. 40. 146. 58. 75. 217. 144. 72. 139.
      148. 164. 43. 46. 217. 102. 150. 233. 251. 235. 16. 14. 99. 138.
      241. 155. 209. 5. 59. 99. 12. 110. 134. 35. 32. 250. 89. 78. 203.
      234. 73. 95. 224. 112. 10. 18. 200. 52. 32. 123. 237. 19. 129.
      134. 242. 254. 211. 31. 12. 135. 44. 117. 136. 114. 130. 120. 33.
      112. 229. 44. 29. 88. 23. 107. 168. 182. 40. 143. 27. 208. 54.
      206. 149. 127. 8. 136. 250. 225. 192. 215. 249. 18. 178. 70. 140.
      67. 43. 80. 34. 189. 229. 44. 15. 89. 16. 45. 168. 178. 72. 215.
      63. 64. 82. 198. 213. 125. 8. 136. 224. 193. 0. 199. 249. 33. 16.
      64. 160. 67. 35. 88. 0. 246. 237. 52. 10. 120. 48. 61. 160. 214.
      2. 223. 43. 16. 66. 118. 197. 125. 169. 168. 209. 65. 204. 198.
      251. 238. 144. 38. 168. 33. 1. 3. 32. 83. 209. 82. 139. 234. 64.
      63. 160. 98. 202. 213. 195. 84. 112. 127. 253. 51. 137. 33. 242.
      136. 78. 29. 140. 139. 36. 69. 128. 99. 160. 9. 52. 89. 101. 112.
      10. 107. 48. 116. 232. 118. 224. 213. 55. 128. 112. 54. 92. 22.
      172. 161. 208. 109. 14. 228. 175. 39. 128. 44. 160. 65. 177. 120.
      48. 56. 224. 45. 29. 81. 24. 111. 168. 180. 8. 159. 31. 80. 50.
      141. 212. 125. 8. 136. 99. 243. 144. 219. 217. 37. 56. 66. 136.
      66. 35. 1. 2. 197. 141. 124. 10. 238. 56. 126. 234. 82. 228. 213.
      34. 144. 196. 94. 76. 46. 45. 161. 208. 205. 78. 4. 46. 235. 128.
      12. 172. 89. 133. 227. 161. 240. 92. 109. 157. 216. 216. 219. 248.
      244. 8. 138. 248. 222. 50. 217. 200. 118. 73. 142. 98. 234. 209.
      31. 24. 133. 254. 83. 140. 82. 197. 16. 8. 143. 191. 28. 134. 173.
      112. 190. 170. 210. 66. 245. 227. 48. 66. 122. 109. 127. 137. 33.
      209. 137. 124. 213. 170. 235. 128. 36. 232. 49. 160. 88. 48. 116.
      225. 33. 30. 89. 16. 45. 104. 182. 40. 223. 23. 130. 244. 166.
      149. 253. 8. 137. 192. 161. 192. 195. 251. 33. 144. 34. 132. 7.
      115. 3. 6. 68. 159. 124. 131. 232. 72. 30. 48. 210. 194. 224. 227.
      52. 69. 122. 238. 106. 173. 34. 242. 79. 253. 180. 34. 203. 12.
      29. 168. 113. 128. 88. 48. 190. 165. 42. 14. 56. 112. 173. 168.
      178. 160. 223. 191. 0. 82. 166. 117. 253. 1. 160. 209. 129. 204.
      214. 243. 111. 147. 38. 160. 7. 19. 80. 32. 94. 165. 10. 9. 120.
      64. 46. 164. 162. 11. 215. 139. 66. 82. 43. 197. 105. 128. 8. 243.
      201. 0. 221. 225. 11. 17. 32. 0. 47. 2. 17. 15. 91. 255. 54. 138.
      111. 118. 52. 128. 90. 66. 245. 227. 176. 64. 118. 127. 55. 201.
      193. 152. 1. 47. 228. 175. 174. 128. 44. 194. 33. 169. 80. 16.
      159. 229. 16. 78. 125. 48. 52. 226. 130. 0. 215. 55. 0. 82. 180.
      213. 125. 171. 41. 209. 17. 12. 217. 163. 239. 0. 32. 32. 37. 114.
      120. 37. 56. 104. 29. 77. 83. 88. 99. 164. 172. 8. 19. 153. 64.
      48. 216. 148. 72. 72. 8. 35. 250. 18. 251. 221. 5. 57. 114. 10.
      70. 34. 208. 4. 223. 229. 22. 74. 111. 56. 52. 162. 194. 2. 215.
      51. 0. 67. 114. 85. 121. 106. 32. 208. 81. 14. 229. 163. 111. 16.
      36. 240. 37. 32. 54. 160. 202. 152. 207. 193. 210. 200. 159. 180.
      224. 11. 98. 200. 110. 16. 249. 217. 227. 145. 10. 115. 202. 211.
      31. 4. 143. 127. 241. 12. 126. 130. 152. 21. 126. 229. 19. 94.
      127. 48. 53. 192. 206. 134. 223. 55. 34. 113. 118. 213. 221. 238.
      104. 145. 49. 142. 251. 239. 163. 0. 38. 162. 37. 112. 120. 32.
      28. 232. 45. 25. 80. 8. 7. 180. 166. 8. 207. 19. 82. 208. 201.
      132. 253. 8. 8. 103. 203. 144. 218. 219. 129. 61. 114. 137. 88. 2.
      48. 140. 74. 191. 86. 131. 170. 232. 30. 0. 216. 2. 117. 234. 48.
      64. 127. 235. 51. 129. 34. 187. 10. 255. 124. 167. 175. 136. 21.
      10. 113. 128. 88. 12. 254. 189. 62. 138. 124. 50. 188. 162. 210.
      2. 223. 170. 48. 67. 230. 229. 127. 129. 168. 217. 65. 236. 244.
      235. 239. 128. 36. 232. 33. 1. 32. 13. 67. 139. 84. 131. 234. 104.
      94. 160. 104. 194. 225. 194. 176. 196. 122. 172. 2. 233. 34. 178.
      76. 255. 60. 6. 143. 0. 53. 138. 113. 132. 66. 32. 254. 245. 44.
      139. 248. 64. 239. 164. 242. 8. 207. 171. 84. 18. 234. 237. 111.
      1. 0. 241. 193. 192. 150. 249. 11. 51. 68. 168. 75. 128. 114. 130.
      194. 190. 94. 129. 234. 200. 31. 0. 248. 227. 97. 234. 52. 196.
      123. 235. 46. 129. 14. 51. 142. 251. 52. 54. 139. 171. 53. 46.
      120. 132. 88. 56. 191. 246. 33. 204. 89. 18. 171. 232. 38. 12.
      255. 183. 64. 242. 166. 119. 253. 8. 9. 201. 179. 160. 195. 251.
      112. 16. 2. 160. 7. 123. 1. 176. 157. 213. 96. 138. 169. 23. 46.
      121. 114. 224. 181. 23. 128. 96. 38. 61. 126. 12. 131. 216. 225.
      69. 196. 168. 122. 192. 12. 128. 1. 185. 112. 32. 112. 205. 108.
      9. 232. 75. 107. 160. 240. 10. 143. 170. 84. 18. 234. 205. 110. 0.
      136. 115. 199. 208. 158. 248. 7. 48. 101. 168. 66. 129. 88. 48.
      57. 229. 41. 77. 83. 16. 43. 232. 190. 44. 159. 31. 64. 50. 134.
      85. 253. 8. 137. 96. 241. 130. 195. 253. 33. 178. 66. 138. 6. 115.
      34. 12. 71. 219. 84. 131. 234. 104. 94. 160. 112. 198. 112. 202.
      52. 64. 127. 173. 23. 161. 163. 178. 12. 255. 60. 46. 175. 160.
      29. 8. 113. 160. 122. 48. 112. 225. 108. 29. 120. 88. 111. 168.
      244. 42. 139. 31. 212. 54. 239. 221. 127. 8. 136. 114. 227. 208.
      222. 217. 3. 186. 71. 136. 66. 167. 80. 8. 142. 191. 86. 130. 174.
      96. 188. 130. 194. 2. 245. 227. 56. 64. 122. 239. 43. 137. 32.
      209. 131. 111. 212. 166. 239. 0. 37. 106. 33. 128. 106. 184. 48.
      250. 205. 205. 208. 206. 207. 93. 160. 25. 174. 221. 108. 16. 201.
      59. 251. 17. 10. 107. 218. 177. 155. 209. 21. 123. 82. 12. 214.
      218. 104. 56. 187. 118. 65. 205. 113. 64. 242. 164. 100. 8. 54.
      215. 64. 48. 160. 122. 96. 8. 2. 122. 186. 33. 91. 201. 21. 41.
      66. 0. 70. 234. 96. 12. 149. 116. 12. 14. 69. 39. 224. 163. 162.
      24. 183. 51. 0. 83. 0. 182. 104. 8. 56. 232. 193. 8. 193. 170. 84.
      16. 128. 224. 194. 42. 18. 141. 3. 173. 148. 130. 174. 103. 20. 1.
      218. 2. 53. 170. 48. 64. 106. 43. 19. 129. 120. 153. 4. 255. 160.
      164. 154. 64. 53. 8. 177. 168. 100. 33. 184. 100. 152. 77. 83. 0.
      98. 164. 42. 8. 211. 17. 64. 18. 144. 92. 104. 24. 8. 112. 201. 0.
      207. 173. 5. 53. 64. 2. 70. 34. 96. 33. 24. 100. 92. 79. 67. 40.
      98. 160. 104. 8. 151. 17. 64. 48. 152. 92. 64. 106. 72. 50. 216.
      28. 231. 141. 1. 61. 64. 10. 66. 34. 162. 176. 185. 250. 77. 237.
      145. 73. 207. 51. 161. 24. 150. 221. 76. 27. 137. 25. 123. 17. 18.
      103. 218. 209. 205. 144. 80. 127. 208. 8. 215. 162. 80. 13. 14.
      172. 30. 131. 71. 105. 132. 4. 202. 3. 115. 99. 32. 65. 120. 164.
      72. 226. 104. 131. 1. 29. 241. 161. 131. 17. 48. 42. 52. 10. 96.
      33. 25. 96. 0. 77. 67. 0. 96. 160. 46. 8. 151. 19. 64. 50. 0. 92.
      104. 72. 8. 48. 176. 0. 205. 173. 5. 33. 64. 130. 70. 34. 96. 48.
      152. 4. 8. 73. 17. 0. 98. 228. 36. 12. 2. 4. 66. 18. 0. 68. 72. 0.
      1. 96. 240. 0. 72. 129. 5. 49. 72. 0. 78. 80. 38. 200. 107. 155.
      124. 129. 171. 200. 30. 129. 208. 194. 240. 204. 124. 64. 89. 169.
      19. 145. 163. 246. 75. 255. 28. 14. 175. 172. 21. 8. 113. 160. 80.
      56. 187. 116. 2. 204. 81. 7. 160. 161. 34. 24. 54. 151. 64. 50.
      160. 55. 121. 0. 0. 73. 146. 0. 209. 233. 16. 57. 32. 0. 134. 42.
      68. 160. 185. 2. 136. 105. 17. 136. 98. 245. 36. 25. 2. 5. 74. 26.
      1. 70. 232. 16. 22. 64. 234. 48. 75. 129. 5. 125. 192. 113. 198.
      114. 64. 32. 16. 96. 32. 12. 65. 16. 40. 160. 34. 8. 151. 19. 64.
      82. 128. 68. 104. 8. 8. 64. 208. 0. 201. 168. 1. 48. 64. 0. 67.
      34. 64. 48. 185. 100. 32. 76. 81. 16. 34. 172. 166. 40. 151. 55.
      64. 50. 132. 84. 108. 8. 9. 96. 241. 0. 201. 225. 37. 48. 64. 160.
      7. 115. 112. 32. 186. 120. 24. 205. 83. 72. 242. 140. 172. 8. 119.
      211. 96. 16. 217. 244. 108. 0. 10. 35. 202. 19. 217. 197. 37. 57.
      96. 2. 102. 34. 24. 29. 55. 254. 21. 215. 82. 112. 149. 72. 202.
      3. 127. 255. 32. 192. 216. 242. 157. 32. 43. 131. 24. 191. 243.
      247. 131. 19. 18. 42. 116. 18. 64. 152. 29. 253. 44. 79. 65. 154.
      142. 56. 128. 64. 183. 215. 0. 98. 197. 83. 127. 9. 11. 40. 91.
      17. 193. 178. 107. 60. 24. 8. 1. 35. 236. 112. 176. 240. 205. 125.
      80. 202. 75. 187. 165. 24. 154. 217. 77. 62. 201. 208. 251. 18.
      26. 103. 250. 144. 223. 217. 85. 127. 210. 121. 214. 130. 88. 50.
      248. 36. 34. 24. 16. 16. 96. 172. 54. 173. 15. 43. 194. 18. 38.
      69. 236. 0. 132. 64. 164. 0. 218. 225. 37. 177. 102. 160. 14. 67.
      80. 48. 251. 100. 2. 72. 17. 64. 162. 172. 182. 169. 31. 183. 66.
      18. 34. 213. 237. 0. 8. 67. 160. 0. 219. 225. 37. 177. 97. 160.
      38. 99. 112. 160. 234. 124. 77. 89. 80. 73. 131. 180. 165. 11. 35.
      233. 70. 22. 201. 208. 235. 128. 10. 99. 202. 145. 219. 209. 129.
      63. 115. 40. 126. 66. 37. 48. 221. 193. 236. 47. 232. 216. 94.
      179. 177. 92. 148. 249. 93. 10. 223. 73. 115. 25. 147. 114. 219.
      80. 76. 24. 167. 124. 220. 233. 211. 129. 88. 112. 176. 229. 41.
      12. 123. 16. 43. 168. 190. 40. 223. 55. 192. 86. 182. 213. 253. 8.
      136. 196. 225. 192. 207. 255. 35. 178. 34. 167. 3. 49. 92. 48.
      250. 100. 227. 124. 89. 81. 43. 229. 39. 24. 31. 159. 78. 58. 166.
      21. 253. 0. 149. 65. 184. 192. 223. 217. 65. 115. 226. 128. 143.
      115. 96. 32. 144. 4. 0. 9. 0. 0. 96. 160. 34. 8. 6. 2. 64. 18. 0.
      68. 104. 0. 0. 96. 192. 0. 136. 128. 1. 48. 64. 32. 2. 0. 84. 8.
      191. 244. 13. 236. 112. 98. 233. 130. 162. 8. 126. 187. 97. 123.
      224. 245. 121. 130. 8. 111. 146. 224. 219. 251. 87. 27. 160. 97.
      102. 10. 34. 168. 40. 186. 205. 197. 240. 199. 158. 17. 192. 27.
      180. 220. 116. 0. 201. 59. 51. 145. 2. 106. 82. 241. 13. 19. 158.
      107. 80. 8. 244. 138. 1. 4. 15. 253. 84. 135. 235. 107. 22. 160.
      67. 82. 245. 115. 48. 97. 121. 44. 51. 173. 33. 176. 25. 95. 109.
      38. 139. 4. 61. 136. 177. 160. 220. 4. 223. 245. 130. 98. 125. 1.
      176. 182. 135. 146. 223. 119. 9. 91. 51. 245. 125. 170. 56. 213.
      185. 10. 209. 227. 111. 5. 164. 241. 165. 98. 96. 61. 179. 68. 16.
      201. 19. 2. 226. 224. 46. 8. 18. 149. 64. 50. 0. 116. 104. 16. 1.
      41. 176. 2. 105. 164. 5. 48. 64. 2. 70. 112. 120. 32. 243. 100.
      33. 89. 81. 65. 227. 168. 183. 40. 30. 149. 192. 182. 34. 20. 236.
      8. 9. 97. 176. 0. 219. 217. 33. 51. 98. 128. 70. 35. 125. 21. 121.
      101. 180. 30. 79. 56. 112. 234. 254. 76. 83. 49. 145. 48. 24. 196.
      84. 110. 233. 176. 125. 14. 227. 239. 37. 16. 107. 250. 82. 32.
      90. 41. 114. 228. 19. 72. 122. 101. 45. 160. 174. 137. 143. 143.
      64. 80. 190. 213. 223. 228. 72. 11. 145. 204. 251. 253. 15. 27.
      103. 134. 35. 10. 96. 40. 187. 86. 0. 200. 19. 0. 224. 164. 38. 9.
      50. 135. 66. 18. 0. 118. 105. 16. 0. 73. 160. 34. 75. 165. 5. 49.
      64. 2. 6. 114. 80. 50. 216. 36. 34. 8. 17. 17. 43. 172. 55. 237.
      135. 3. 194. 18. 38. 85. 236. 16. 0. 64. 128. 0. 216. 225. 33.
      179. 32. 160. 15. 1. 70. 176. 249. 67. 234. 105. 177. 152. 42.
      253. 53. 189. 28. 85. 206. 62. 39. 94. 245. 16. 147. 80. 238. 112.
      95. 8. 53. 255. 196. 241. 199. 243. 97. 56. 249. 86. 104. 205. 89.
      17. 235. 232. 165. 8. 150. 253. 84. 50. 134. 244. 124. 8. 129. 99.
      248. 64. 95. 152. 1. 58. 64. 168. 66. 119. 82. 9. 166. 188. 15.
      194. 232. 103. 175. 0. 202. 2. 44. 186. 48. 194. 232. 167. 251.
      129. 8. 139. 147. 200. 145. 118. 218. 27. 49. 76. 61. 10. 208.
      181. 121. 97. 184. 77. 117. 47. 105. 49. 171. 24. 151. 31. 76. 51.
      166. 23. 93. 48. 122. 41. 241. 71. 255. 185. 18. 118. 64. 0. 199.
      42. 33. 132. 9. 237. 52. 135. 107. 186. 86. 97. 88. 66. 243. 113.
      184. 96. 89. 14. 22. 172. 171. 176. 121. 31. 237. 175. 163. 4. 60.
      138. 112. 160. 117. 85. 105. 69. 180. 30. 79. 184. 97. 232. 190.
      76. 83. 57. 147. 50. 28. 196. 84. 110. 205. 176. 125. 12. 98. 173.
      37. 148. 109. 187. 82. 113. 2. 140. 38. 158. 29. 197. 178. 230.
      158. 17. 192. 18. 236. 254. 32. 65. 201. 123. 187. 129. 34. 235.
      26. 255. 185. 54. 222. 75. 16. 12. 181. 138. 105. 48. 177. 68. 1.
      93. 81. 16. 107. 232. 36. 8. 30. 23. 70. 182. 128. 84. 252. 8. 1.
      96. 184. 128. 203. 217. 5. 51. 74. 36. 78. 119. 96. 48. 177. 68.
      16. 77. 3. 0. 114. 160. 40. 8. 18. 21. 64. 48. 16. 84. 88. 0. 1.
      32. 240. 2. 105. 140. 5. 48. 64. 34. 70. 34. 146. 203. 30. 186.
      27. 193. 148. 230. 158. 29. 208. 179. 44. 206. 38. 65. 232. 59.
      171. 193. 102. 79. 2. 253. 176. 82. 154. 251. 16. 28. 173. 143.
      112. 97. 123. 100. 86. 207. 79. 80. 105. 224. 236. 10. 83. 157.
      85. 48. 58. 253. 85. 106. 73. 183. 184. 78. 247. 140. 1. 48. 97.
      147. 70. 34. 17. 77. 79. 239. 22. 198. 111. 112. 36. 192. 202. 2.
      115. 115. 48. 97. 120. 228. 27. 234. 105. 153. 49. 45. 241. 169.
      170. 0. 49. 186. 113. 40. 229. 98. 232. 64. 108. 59. 200. 72. 75.
      184. 177. 26. 83. 8. 221. 59. 216. 132. 95. 126. 172. 103. 204.
      128. 87. 216. 225. 60. 197. 171. 82. 164. 64. 48. 57. 100. 32. 77.
      81. 16. 98. 168. 166. 8. 215. 23. 64. 50. 128. 84. 108. 8. 9. 96.
      241. 0. 201. 169. 37. 48. 64. 0. 70. 51. 96. 41. 177. 114. 0. 201.
      17. 6. 162. 164. 42. 8. 50. 149. 64. 50. 0. 118. 105. 16. 0. 104.
      224. 32. 73. 128. 21. 48. 64. 2. 70. 42. 57. 4. 117. 69. 52. 27.
      111. 56. 117. 234. 126. 68. 219. 33. 146. 244. 54. 196. 20. 46.
      233. 176. 109. 14. 102. 239. 37. 128. 111. 242. 90. 97. 72. 48.
      121. 100. 57. 61. 91. 16. 43. 168. 191. 40. 159. 23. 192. 180.
      150. 213. 253. 8. 137. 32. 241. 130. 215. 253. 33. 178. 66. 131.
      6. 51. 120. 168. 186. 250. 139. 217. 16. 198. 139. 21. 164. 57.
      46. 223. 102. 18. 129. 243. 233. 16. 10. 107. 138. 177. 219. 209.
      21. 123. 210. 12. 143. 74. 49. 133. 107. 77. 20. 87. 71. 248. 84.
      192. 238. 2. 115. 81. 176. 100. 120. 236. 18. 238. 233. 178. 125.
      31. 113. 173. 133. 4. 121. 170. 112. 224. 108. 48. 189. 100. 137.
      108. 81. 19. 234. 247. 39. 24. 150. 55. 65. 58. 129. 22. 120. 24.
      25. 100. 241. 0. 203. 219. 81. 53. 192. 96. 70. 50. 34. 32. 102.
      137. 77. 75. 232. 74. 95. 160. 240. 138. 136. 142. 116. 64. 122.
      141. 123. 129. 10. 251. 83. 209. 29. 56. 143. 56. 21. 8. 112. 128.
      44. 184. 185. 113. 213. 205. 83. 146. 114. 229. 36. 8. 18. 181.
      65. 48. 145. 126. 80. 24. 27. 120. 248. 34. 239. 205. 21. 117.
      192. 104. 70. 226. 96. 32. 112. 205. 108. 73. 232. 79. 111. 164.
      240. 26. 138. 168. 84. 18. 234. 141. 110. 129. 8. 251. 199. 208.
      158. 184. 23. 57. 69. 168. 198. 136. 9. 52. 93. 101. 112. 10. 107.
      48. 116. 104. 118. 224. 213. 23. 144. 97. 54. 92. 54. 172. 161.
      208. 101. 14. 100. 175. 35. 128. 46. 128. 65. 177. 34. 172. 2.
      154. 93. 145. 162. 238. 215. 129. 232. 2. 96. 192. 36. 132. 249.
      234. 130. 144. 46. 187. 10. 255. 60. 22. 159. 43. 83. 14. 120.
      140. 54. 237. 2. 170. 93. 149. 194. 200. 71. 1. 232. 11. 40. 200.
      60. 128. 248. 171. 131. 193. 14. 43. 26. 255. 59. 68. 143. 107.
      81. 10. 250. 142. 75. 2. 197. 141. 116. 26. 234. 24. 126. 96. 82.
      230. 201. 32. 148. 228. 118. 76. 62. 13. 129. 208. 197. 206. 4.
      62. 163. 128. 14. 172. 89. 149. 82. 162. 134. 154. 75. 145. 160.
      200. 191. 176. 192. 239. 108. 194. 100. 134. 255. 237. 235. 149.
      14. 67. 142. 241. 24. 18. 143. 187. 29. 36. 43. 150. 122. 122. 82.
      58. 75. 209. 144. 72. 139. 156. 180. 171. 46. 223. 102. 150. 233.
      249. 239. 64. 78. 103. 138. 241. 155. 209. 5. 59. 115. 14. 46.
      199. 98. 33. 208. 229. 108. 73. 104. 69. 107. 161. 227. 8. 139.
      11. 92. 18. 202. 133. 110. 8. 28. 123. 193. 192. 151. 156. 145.
      59. 69. 138. 194. 14. 114. 32. 93. 233. 108. 73. 232. 74. 15. 160.
      178. 138. 199. 9. 84. 80. 234. 133. 127. 1. 8. 115. 193. 208. 222.
      154. 131. 57. 116. 136. 86. 162. 120. 33. 88. 224. 29. 73. 83. 72.
      98. 164. 172. 8. 19. 145. 66. 16. 120. 212. 77. 96. 8. 35. 216.
      28. 243. 237. 1. 57. 97. 10. 70. 34. 66. 34. 222. 181. 110. 139.
      248. 67. 237. 164. 242. 11. 135. 203. 84. 82. 234. 45. 111. 5. 4.
      241. 131. 192. 148. 178. 11. 1. 68. 160. 67. 128. 1. 32. 83. 245.
      86. 139. 171. 96. 60. 128. 98. 66. 213. 195. 32. 112. 122. 109. 2.
      168. 33. 240. 13. 78. 60. 174. 139. 0. 33. 0. 35. 160. 1. 14. 79.
      189. 118. 131. 234. 112. 28. 128. 122. 198. 245. 226. 176. 96.
      126. 44. 22. 173. 161. 176. 13. 94. 36. 174. 171. 128. 61. 170.
      113. 160. 38. 172. 98. 218. 221. 195. 226. 200. 87. 37. 232. 10.
      96. 216. 124. 64. 249. 234. 19. 145. 42. 51. 90. 255. 63. 14. 143.
      111. 85. 14. 118. 130. 106. 34. 112. 193. 108. 29. 248. 89. 123.
      172. 245. 10. 139. 137. 212. 20. 254. 141. 119. 8. 136. 114. 207.
      208. 31. 216. 5. 187. 103. 136. 114. 129. 88. 84. 253. 101. 35.
      94. 93. 48. 105. 198. 54. 44. 223. 63. 135. 255. 166. 213. 253.
      42. 225. 192. 177. 200. 227. 251. 100. 147. 98. 240. 70. 115. 112.
      176. 185. 104. 13. 77. 81. 152. 99. 188. 164. 8. 151. 213. 64. 50.
      137. 212. 108. 16. 10. 99. 250. 17. 219. 217. 37. 61. 112. 8. 70.
      98. 84. 176. 189. 99. 170. 104. 21. 153. 170. 255. 163. 57. 215.
      183. 72. 26. 167. 87. 109. 16. 19. 65. 187. 48. 219. 195. 117.
      246. 160. 193. 135. 115. 84. 114. 158. 180. 170. 96. 61. 208. 170.
      182. 134. 177. 221. 247. 75. 90. 167. 117. 237. 147. 16. 193. 139.
      64. 216. 227. 111. 173. 164. 113. 167. 115. 65. 16. 29. 229. 32.
      14. 105. 17. 62. 160. 82. 100. 215. 51. 128. 96. 54. 93. 60. 136.
      129. 208. 81. 12. 196. 171. 99. 128. 8. 130. 1. 49. 247. 112. 213.
      100. 75. 44. 108. 216. 105. 178. 162. 72. 95. 185. 85. 27. 173.
      213. 120. 98. 105. 119. 217. 72. 151. 186. 69. 62. 105. 113. 66.
      130. 120. 53. 57. 104. 93. 79. 83. 88. 83. 164. 236. 8. 19. 85.
      64. 48. 216. 156. 68. 40. 10. 50. 248. 31. 251. 205. 5. 61. 114.
      138. 86. 98. 8. 152. 63. 245. 48. 142. 121. 55. 60. 9. 102. 16.
      181. 55. 0. 121. 6. 63. 61. 8. 179. 220. 49. 15. 199. 239. 50. 64.
      128. 128. 5. 123. 50. 153. 62. 186. 153. 197. 16. 230. 143. 21.
      168. 1. 166. 255. 34. 66. 201. 115. 235. 1. 14. 43. 26. 181. 155.
      247. 30. 123. 16. 8. 165. 90. 17. 159. 27. 239. 20. 134. 111. 180.
      52. 8. 218. 70. 247. 99. 176. 96. 116. 238. 28. 234. 105. 152. 17.
      47. 224. 173. 174. 128. 40. 162. 33. 41. 216. 69. 119. 229. 19.
      94. 94. 48. 53. 194. 174. 3. 95. 63. 0. 243. 54. 213. 253. 234.
      105. 197. 49. 206. 243. 235. 199. 17. 35. 182. 36. 114. 116. 176.
      57. 122. 168. 205. 81. 152. 130. 61. 180. 56. 150. 87. 72. 50.
      129. 82. 108. 16. 26. 99. 250. 49. 217. 129. 37. 125. 240. 8. 198.
      99. 16. 14. 219. 189. 118. 130. 170. 72. 54. 128. 82. 226. 213.
      227. 176. 64. 122. 237. 47. 137. 32. 146. 11. 79. 244. 166. 170.
      128. 53. 170. 33. 128. 50. 168. 187. 250. 77. 193. 144. 200. 159.
      180. 224. 11. 34. 221. 108. 16. 201. 251. 235. 17. 10. 99. 154.
      241. 91. 144. 135. 63. 81. 8. 118. 194. 131. 2. 199. 141. 116. 26.
      168. 19. 124. 97. 82. 214. 140. 2. 148. 236. 118. 12. 42. 156.
      149. 216. 69. 196. 4. 62. 250. 192. 142. 140. 41. 157. 37. 225.
      65. 192. 92. 15. 107. 248. 67. 224. 249. 74. 83. 81. 213. 48. 120.
      200. 22. 234. 203. 50. 248. 95. 61. 140. 161. 60. 121. 171. 82.
      160. 50. 170. 66. 154. 79. 129. 210. 200. 151. 4. 240. 171. 104.
      201. 108. 208. 121. 251. 163. 129. 14. 107. 202. 243. 26. 84. 151.
      43. 119. 12. 126. 142. 90. 28. 150. 183. 55. 142. 188. 34. 189.
      130. 194. 2. 237. 254. 32. 67. 166. 119. 123. 129. 32. 217. 147.
      236. 245. 243. 206. 2. 4. 96. 33. 2. 106. 248. 49. 250. 41. 205.
      146. 196. 143. 88. 184. 105. 174. 223. 100. 144. 134. 59. 255. 81.
      3. 107. 218. 241. 139. 208. 13. 123. 82. 15. 7. 187. 34. 152. 23.
      186. 141. 205. 144. 238. 158. 17. 128. 16. 174. 252. 96. 65. 201.
      123. 251. 17. 50. 107. 90. 181. 137. 210. 94. 123. 144. 8. 149.
      10. 105. 48. 57. 68. 33. 93. 81. 16. 105. 232. 52. 44. 26. 30.
      198. 182. 130. 84. 212. 8. 133. 96. 176. 192. 67. 249. 33. 179.
      74. 4. 78. 119. 122. 184. 18. 186. 11. 217. 16. 198. 139. 20. 164.
      169. 46. 223. 102. 146. 163. 115. 235. 17. 6. 107. 138. 241. 219.
      209. 31. 123. 82. 12. 47. 11. 88. 176. 186. 112. 171. 233. 21. 7.
      171. 183. 38. 57. 158. 183. 66. 26. 131. 23. 233. 16. 18. 73. 178.
      0. 219. 209. 84. 119. 194. 64. 135. 106. 3. 34. 199. 149. 90. 131.
      170. 72. 62. 224. 194. 231. 192. 192. 180. 196. 126. 236. 34. 149.
      133. 210. 79. 92. 28. 34. 143. 128. 45. 140. 57. 148. 90. 116.
      250. 100. 48. 63. 122. 80. 171. 168. 191. 40. 207. 159. 197. 52.
      182. 221. 221. 104. 136. 5. 225. 202. 215. 253. 1. 178. 98. 163.
      66. 51. 108. 248. 184. 240. 205. 125. 213. 222. 203. 251. 164. 24.
      146. 185. 69. 58. 201. 210. 255. 16. 154. 103. 250. 176. 219. 217.
      85. 127. 208. 121. 214. 226. 61. 71. 97. 69. 180. 30. 79. 184.
      113. 232. 126. 206. 83. 33. 149. 180. 92. 196. 20. 110. 233. 176.
      109. 142. 46. 238. 165. 132. 111. 254. 80. 116. 32. 184. 189. 187.
      205. 205. 144. 143. 222. 57. 176. 24. 182. 153. 64. 8. 201. 27.
      123. 17. 18. 106. 210. 49. 77. 145. 62. 123. 208. 8. 215. 171. 41.
      20. 253. 69. 116. 14. 103. 56. 118. 170. 102. 68. 211. 49. 144.
      112. 80. 76. 34. 44. 169. 176. 121. 14. 103. 175. 97. 0. 106. 160.
      66. 160. 43. 63. 67. 6. 114. 155. 234. 112. 105. 200. 120. 237.
      41. 204. 182. 180. 62. 235. 150. 206. 199. 186. 164. 237. 54. 92.
      32. 170. 111. 134. 107. 221. 41. 5. 225. 109. 84. 14. 103. 56.
      113. 234. 126. 68. 83. 49. 144. 112. 88. 204. 20. 46. 169. 176.
      125. 14. 103. 239. 37. 0. 107. 250. 82. 32. 80. 40. 191. 252. 13.
      228. 80. 66. 169. 130. 162. 0. 54. 187. 97. 90. 224. 245. 105.
      128. 8. 79. 146. 97. 211. 242. 82. 27. 0. 33. 39. 10. 120. 32.
      242. 68. 99. 89. 113. 65. 235. 173. 181. 40. 14. 159. 198. 190.
      162. 149. 204. 0. 4. 99. 160. 192. 91. 221. 48. 179. 99. 132. 78.
      103. 240. 45. 122. 232. 19. 207. 90. 99. 53. 132. 236. 11. 15.
      155. 32. 16. 248. 191. 81. 232. 120. 187. 16. 206. 251. 237. 130.
      9. 99. 0. 230. 10. 80. 37. 58. 100. 80. 201. 19. 64. 32. 164. 108.
      9. 6. 207. 98. 16. 176. 253. 65. 96. 0. 19. 128. 14. 115. 165. 1.
      41. 64. 2. 70. 66. 75. 50. 144. 36. 97. 28. 56. 23. 43. 233. 86.
      253. 175. 6. 194. 214. 134. 15. 236. 4. 133. 88. 129. 192. 142.
      241. 60. 163. 10. 132. 139. 93. 44. 178. 248. 33. 234. 91. 57.
      154. 58. 253. 52. 173. 141. 13. 202. 16. 55. 93. 213. 21. 146. 80.
      239. 145. 78. 65. 37. 231. 231. 164. 143. 211. 97. 120. 251. 118.
      77. 204. 121. 16. 235. 192. 163. 8. 178. 223. 85. 58. 168. 241.
      120. 8. 139. 111. 250. 97. 159. 248. 16. 58. 64. 131. 66. 42. 82.
      9. 134. 140. 29. 128. 176. 71. 175. 1. 202. 3. 172. 170. 32. 194.
      232. 167. 235. 129. 28. 139. 146. 205. 177. 52. 154. 27. 17. 12.
      185. 10. 96. 32. 24. 0. 0. 9. 0. 0. 96. 160. 32. 8. 2. 2. 64. 18.
      0. 68. 72. 0. 0. 96. 128. 0. 0. 161. 1. 48. 64. 0. 74. 0. 208.
      229. 125. 243. 170. 72. 189. 231. 44. 55. 38. 24. 159. 23. 72. 83.
      163. 23. 105. 64. 114. 77. 155. 117. 253. 169. 126. 117. 64. 16.
      135. 170. 33. 141. 89. 109. 20. 15. 79. 186. 86. 32. 110. 64. 243.
      113. 144. 112. 81. 204. 16. 44. 169. 184. 121. 31. 237. 175. 165.
      84. 56. 170. 80. 32. 84. 160. 151. 177. 136. 110. 100. 129. 246.
      179. 163. 16. 215. 243. 73. 26. 161. 68. 104. 56. 56. 241. 217. 0.
      205. 130. 71. 116. 128. 96. 131. 34. 6. 78. 6. 190. 26. 162. 186.
      224. 134. 22. 219. 231. 228. 202. 35. 73. 207. 225. 171. 195. 6.
      135. 14. 253. 144. 54. 219. 139. 29. 47. 61. 159. 86. 176. 251.
      240. 130. 236. 57. 65. 171. 49. 163. 25. 31. 159. 76. 58. 167.
      151. 249. 16. 18. 67. 184. 64. 219. 217. 27. 119. 225. 65. 135.
      114. 220. 64. 126. 229. 6. 74. 77. 48. 180. 166. 199. 146. 87. 35.
      25. 91. 114. 244. 125. 170. 104. 213. 161. 8. 211. 235. 227. 1.
      36. 177. 36. 32. 75. 50. 209. 5. 99. 28. 169. 16. 105. 232. 54.
      236. 140. 6. 198. 246. 134. 69. 238. 12. 129. 80. 164. 192. 4. 56.
      47. 130. 78. 132. 3. 245. 32. 173. 56. 90. 221. 197. 211. 207.
      203. 21. 232. 9. 34. 217. 102. 16. 201. 186. 3. 80. 26. 43. 218.
      49. 127. 21. 20. 123. 208. 10. 214. 138. 65. 152. 149. 255. 40.
      207. 65. 186. 174. 56. 130. 72. 247. 115. 0. 115. 193. 116. 108.
      8. 43. 200. 219. 61. 193. 170. 97. 20. 16. 40. 1. 35. 146. 163.
      158. 179. 186. 200. 48. 167. 190. 21. 3. 49. 236. 247. 106. 75.
      163. 19. 233. 17. 50. 201. 139. 117. 205. 146. 94. 67. 128. 0.
      173. 11. 96. 48. 57. 96. 12. 77. 81. 26. 98. 188. 164. 8. 151. 21.
      64. 48. 137. 148. 76. 8. 10. 98. 242. 17. 203. 201. 37. 61. 80. 8.
      70. 34. 64. 112. 57. 100. 32. 77. 81. 16. 32. 172. 38. 8. 151. 23.
      64. 114. 134. 20. 124. 8. 9. 100. 241. 0. 193. 169. 33. 48. 64.
      128. 6. 115. 9. 26. 20. 21. 49. 159. 32. 54. 117. 232. 34. 196.
      138. 32. 128. 151. 4. 102. 236. 12. 161. 248. 17. 44. 136. 250.
      117. 146. 74. 132. 3. 29. 163. 235. 128. 27. 221. 157. 168. 205.
      30. 113. 1. 221. 160. 200. 94. 133. 157. 74. 194. 85. 215. 122.
      222. 245. 44. 16. 157. 126. 216. 14. 219. 156. 82. 50. 151. 165.
      34. 10. 56. 16. 46. 232. 18. 229. 215. 38. 128. 66. 166. 69. 109.
      5. 133. 209. 141. 12. 136. 162. 111. 144. 44. 32. 1. 17. 73. 32.
      16. 96. 1. 13. 64. 16. 98. 160. 34. 8. 151. 19. 64. 18. 128. 68.
      104. 8. 8. 64. 209. 0. 201. 160. 5. 48. 74. 0. 67. 32. 65. 48.
      185. 4. 0. 76. 17. 16. 96. 228. 36. 12. 18. 22. 66. 50. 4. 68.
      216. 0. 129. 64. 176. 0. 201. 137. 5. 49. 72. 32. 6. 115. 64. 48.
      57. 96. 96. 109. 113. 16. 33. 168. 38. 8. 150. 23. 64. 50. 132.
      84. 124. 8. 1. 96. 241. 0. 197. 185. 33. 48. 64. 128. 70. 115.
      163. 165. 1. 155. 212. 149. 174. 175. 94. 113. 72. 214. 176. 104.
      92. 160. 93. 74. 18. 157. 183. 88. 95. 247. 44. 30. 159. 100. 157.
      12. 216. 220. 177. 125. 115. 78. 85. 207. 103. 112. 113. 170. 248.
      74. 114. 217. 53. 180. 248. 252. 22. 234. 233. 182. 24. 254. 55.
      188. 133. 0. 107. 187. 114. 160. 72. 184. 187. 126. 73. 204. 113.
      150. 250. 21. 100. 8. 54. 215. 64. 50. 129. 122. 96. 0. 2. 106.
      186. 33. 79. 185. 20. 41. 64. 0. 70. 234. 77. 82. 165. 5. 170.
      122. 21. 184. 35. 254. 150. 237. 223. 52. 195. 255. 7. 84. 253.
      46. 233. 68. 239. 136. 200. 251. 101. 148. 174. 244. 4. 113. 33.
      188. 185. 83. 212. 207. 115. 150. 115. 241. 100. 8. 178. 21. 64.
      48. 137. 122. 82. 24. 35. 248. 248. 58. 111. 159. 21. 96. 192.
      200. 70. 234. 123. 32. 64. 0. 1. 28. 72. 0. 97. 160. 166. 8. 11.
      0. 86. 150. 136. 196. 232. 140. 12. 66. 196. 192. 26. 88. 129. 51.
      66. 132. 90. 4. 105. 37. 145. 68. 93. 93. 66. 0. 107. 160. 40. 8.
      10. 48. 68. 180. 144. 204. 192. 8. 9. 50. 240. 2. 47. 220. 5. 51.
      66. 14. 82. 164. 96. 48. 189. 101. 192. 108. 117. 23. 115. 167.
      102. 24. 214. 55. 72. 58. 145. 86. 96. 40. 49. 112. 241. 0. 197.
      187. 85. 32. 192. 96. 198. 42. 248. 53. 59. 104. 56. 201. 83. 88.
      178. 172. 188. 40. 55. 213. 64. 16. 153. 248. 76. 32. 42. 35. 232.
      31. 249. 133. 37. 57. 96. 10. 70. 99. 82. 50. 248. 164. 34. 8. 89.
      16. 34. 172. 182. 173. 143. 15. 194. 18. 38. 213. 237. 145. 8. 67.
      132. 64. 218. 225. 47. 177. 37. 128. 15. 83. 94. 230. 220. 183.
      170. 32. 28. 158. 171. 191. 155. 243. 207. 111. 201. 219. 167.
      215. 253. 151. 52. 65. 139. 224. 218. 227. 127. 151. 164. 243.
      129. 3. 1. 132. 15. 253. 84. 231. 233. 107. 22. 33. 66. 18. 209.
      51. 48. 96. 121. 44. 50. 168. 49. 184. 81. 95. 205. 174. 155. 68.
      49. 136. 177. 160. 92. 178. 185. 182. 170. 73. 19. 156. 186. 253.
      180. 189. 255. 247. 202. 18. 183. 215. 237. 16. 2. 65. 235. 51.
      216. 231. 117. 253. 176. 226. 135. 123. 112. 32. 249. 120. 13.
      105. 80. 72. 131. 188. 165. 9. 34. 221. 77. 26. 201. 208. 237. 0.
      10. 103. 250. 17. 219. 209. 1. 127. 113. 41. 70. 98. 89. 21. 29.
      229. 48. 14. 105. 55. 60. 161. 106. 96. 215. 55. 128. 112. 54. 22.
      124. 40. 33. 152. 81. 12. 229. 175. 50. 0. 40. 160. 129. 57. 86.
      50. 204. 161. 170. 2. 61. 152. 46. 254. 150. 167. 213. 46. 195.
      74. 39. 213. 253. 149. 156. 193. 141. 64. 216. 227. 239. 197. 164.
      240. 37. 83. 16. 4. 11. 237. 20. 135. 111. 120. 20. 0. 206. 2.
      247. 103. 48. 64. 120. 172. 31. 170. 40. 176. 25. 31. 241. 239.
      171. 0. 53. 170. 48. 160. 50. 161. 63. 218. 77. 197. 144. 200.
      143. 148. 168. 11. 34. 221. 100. 18. 201. 251. 203. 65. 10. 99.
      154. 241. 89. 144. 133. 59. 81. 10. 118. 162. 91. 16. 253. 100.
      35. 94. 125. 48. 41. 198. 38. 40. 95. 63. 135. 126. 166. 213. 253.
      42. 161. 64. 177. 200. 215. 251. 68. 19. 102. 244. 70. 117. 16. 4.
      159. 229. 22. 78. 107. 56. 52. 128. 67. 2. 213. 51. 0. 96. 114.
      93. 58. 168. 33. 208. 17. 14. 197. 166. 234. 0. 40. 160. 33. 32.
      120. 40. 82. 224. 79. 25. 112. 74. 227. 160. 224. 11. 10. 137.
      100. 148. 104. 140. 234. 0. 12. 123. 210. 208. 87. 217. 129. 59.
      99. 12. 106. 130. 83. 18. 198. 148. 226. 2. 44. 19. 187. 194. 82.
      231. 76. 234. 199. 222. 55. 229. 255. 165. 197. 211. 135. 194.
      156. 54. 223. 138. 174. 228. 43. 29. 96. 48. 121. 224. 60. 77. 82.
      26. 127. 168. 188. 104. 159. 27. 64. 48. 158. 221. 93. 8. 136. 50.
      209. 146. 255. 253. 33. 186. 66. 136. 66. 3. 96. 32. 17. 229. 32.
      13. 105. 0. 45. 8. 162. 72. 215. 19. 0. 82. 128. 213. 108. 8. 8.
      96. 209. 64. 133. 184. 2. 16. 0. 0. 67. 32. 9. 50. 157. 5. 96. 90.
      161. 23. 40. 237. 118. 244. 152. 22. 198. 178. 6. 14. 228. 0. 145.
      216. 161. 64. 12. 35. 62. 128. 74. 132. 139. 217. 65. 34. 222.
      181. 98. 139. 168. 71. 124. 129. 114. 243. 245. 162. 128. 64. 50.
      47. 106. 13. 0. 248. 135. 76. 148. 162. 58. 128. 12. 128. 163.
      137. 112. 33. 80. 236. 77. 9. 64. 73. 107. 165. 169. 11. 2. 155.
      76. 16. 248. 140. 106. 32. 24. 51. 211. 208. 151. 188. 3. 123. 97.
      10. 70. 130. 114. 157. 62. 186. 153. 197. 18. 230. 143. 21. 168.
      9. 166. 223. 98. 64. 201. 115. 235. 81. 14. 11. 90. 55. 251. 245.
      30. 123. 16. 10. 165. 74. 50. 34. 114. 201. 108. 187. 232. 75. 95.
      172. 240. 43. 10. 201. 244. 16. 251. 173. 230. 129. 26. 114. 192.
      211. 30. 92. 131. 169. 103. 137. 126. 132. 118. 160. 80. 90. 207.
      209. 208. 200. 147. 53. 164. 155. 42. 201. 110. 148. 217. 155.
      227. 16. 14. 99. 202. 241. 27. 208. 21. 127. 243. 12. 238. 134.
      114. 33. 74. 188. 79. 193. 80. 72. 131. 132. 232. 11. 2. 201. 102.
      18. 232. 232. 227. 192. 14. 99. 202. 209. 19. 208. 129. 59. 113.
      14. 126. 134. 41. 180. 113. 105. 117. 95. 83. 186. 83. 168. 100.
      8. 27. 81. 64. 180. 25. 220. 22. 40. 171. 114. 249. 159. 111. 223.
      5. 116. 90. 136. 82. 162. 80. 16. 159. 229. 8. 78. 65. 16. 36.
      136. 170. 0. 215. 55. 0. 114. 64. 212. 125. 136. 9. 193. 241. 4.
      209. 163. 99. 16. 32. 34. 38. 50. 82. 16. 23. 165. 11. 70. 56. 64.
      173. 0. 194. 131. 205. 191. 32. 82. 230. 213. 251. 133. 0. 193.
      147. 196. 151. 243. 202. 3. 36. 4. 37. 82. 92. 177. 183. 234. 173.
      239. 83. 17. 231. 57. 175. 8. 223. 243. 40. 114. 192. 54. 124. 88.
      26. 161. 251. 144. 203. 249. 33. 82. 130. 139. 196. 35. 104. 153.
      21. 186. 141. 205. 16. 206. 143. 17. 128. 24. 238. 221. 104. 66.
      193. 115. 235. 81. 26. 107. 218. 181. 153. 210. 95. 123. 16. 8.
      133. 10. 37. 132. 232. 77. 214. 19. 239. 168. 86. 226. 70. 130.
      113. 96. 150. 100. 89. 236. 50. 173. 168. 208. 109. 31. 108. 46.
      175. 132. 173. 234. 112. 132. 41. 134. 237. 69. 116. 31. 235. 184.
      118. 160. 102. 64. 211. 97. 144. 176. 89. 76. 34. 44. 169. 240.
      109. 30. 110. 47. 37. 4. 99. 232. 82. 160. 104. 34. 16. 96. 33.
      76. 65. 18. 97. 172. 36. 76. 143. 19. 64. 214. 0. 196. 204. 8. 9.
      96. 192. 0. 128. 241. 33. 48. 74. 0. 74. 32. 127. 178. 224. 64.
      169. 93. 80. 152. 67. 252. 180. 253. 10. 28. 198. 182. 141. 212.
      252. 20. 159. 99. 254. 144. 27. 89. 5. 255. 203. 172. 206. 87.
      213. 149. 189. 86. 137. 100. 87. 189. 249. 218. 175. 24. 86. 119.
      13. 123. 181. 214. 121. 122. 113. 69. 187. 103. 251. 186. 69. 92.
      128. 243. 164. 114. 72. 112. 25. 96. 97. 108. 113. 16. 41. 168.
      46. 72. 158. 23. 65. 62. 132. 20. 122. 8. 1. 112. 177. 64. 69.
      188. 1. 34. 74. 131. 70. 51. 254. 167. 232. 34. 153. 43. 154. 201.
      19. 181. 173. 159. 75. 109. 78. 24. 159. 223. 193. 177. 62. 67.
      204. 146. 251. 197. 141. 255. 213. 79. 158. 194. 213. 77. 239. 55.
      130. 94. 111. 180. 112. 226. 70. 150. 211. 36. 147. 123. 48. 230.
      56. 238. 237. 220. 253. 42. 229. 235. 244. 0. 45. 241. 208. 120.
      113. 104. 49. 118. 77. 141. 194. 192. 235. 8. 176. 72. 178. 217.
      93. 188. 136. 176. 124. 74. 139. 39. 218. 241. 145. 252. 16. 58.
      73. 11. 66. 46. 66. 137. 22. 157. 21. 132. 164. 103. 172. 1. 74.
      2. 172. 130. 32. 198. 224. 39. 42. 129. 82. 153. 18. 197. 181. 48.
      154. 66. 0. 4. 169. 142. 211. 4. 148. 181. 160. 44. 120. 3. 169.
      179. 131. 240. 207. 43. 73. 219. 167. 23. 125. 133. 60. 196. 195.
      192. 132. 242. 90. 130. 140. 224. 169. 5. 33. 161. 1. 89. 220.
      143. 97. 25. 86. 185. 97. 72. 211. 193. 208. 96. 88. 40. 34. 28.
      131. 240. 77. 29. 13. 136. 165. 100. 88. 136. 80. 160. 7. 10. 134.
      190. 40. 167. 170. 8. 134. 80. 203. 199. 229. 226. 43. 74. 220.
      103. 43. 167. 140. 131. 95. 189. 128. 50. 203. 8. 152. 111. 49.
      148. 71. 250. 149. 183. 168. 44. 44. 152. 170. 251. 19. 244. 213.
      98. 201. 75. 167. 71. 125. 223. 179. 68. 219. 96. 140. 178. 255.
      252. 140. 241. 129. 17. 32. 184. 153. 251. 236. 205. 176. 135.
      158. 25. 112. 120. 180. 209. 104. 0. 201. 59. 107. 17. 18. 104.
      218. 49. 77. 147. 62. 120. 208. 8. 133. 171. 92. 238. 88. 251.
      170. 73. 62. 172. 174. 22. 184. 161. 255. 243. 72. 90. 39. 83.
      237. 194. 66. 12. 139. 113. 228. 199. 126. 189. 52. 210. 135. 43.
      90. 170. 146. 178. 171. 217. 16. 199. 171. 53. 164. 57. 174. 191.
      66. 30. 163. 51. 237. 16. 18. 73. 130. 241. 219. 209. 20. 123.
      194. 68. 143. 75. 83. 34. 6. 156. 75. 145. 168. 72. 159. 144. 192.
      207. 108. 202. 116. 196. 127. 237. 235. 149. 14. 67. 159. 209. 24.
      50. 143. 58. 29. 4. 59. 148. 1. 2. 29. 69. 108. 15. 225. 24. 126.
      40. 98. 64. 208. 0. 144. 244. 88. 76. 106. 12. 129. 240. 117. 80.
      5. 58. 35. 0. 64. 136. 80. 164. 67. 50. 195. 132. 98. 50. 168. 75.
      59. 195. 90. 231. 12. 174. 212. 222. 119. 141. 247. 149. 149. 218.
      135. 192. 28. 52. 219. 170. 141. 228. 43. 213. 84. 160. 159. 182.
      130. 226. 36. 67. 180. 151. 195. 18. 212. 227. 104. 74. 241. 127.
      104. 144. 48. 217. 138. 64. 217. 162. 223. 0. 128. 96. 165. 130.
      209. 142. 213. 119. 42. 10. 71. 176. 180. 178. 162. 104. 247. 115.
      129. 83. 7. 119. 108. 42. 105. 197. 201. 60. 224. 162. 101. 20.
      32. 240. 1. 33. 80. 160. 219. 179. 138. 200. 185. 205. 170. 17.
      161. 147. 149. 223. 72. 18. 167. 159. 91. 145. 18. 81. 154. 113.
      221. 160. 30. 100. 160. 0. 167. 162. 64. 24. 151. 253. 40. 203.
      81. 48. 166. 40. 138. 96. 247. 243. 160. 114. 134. 116. 108. 8. 9.
      129. 75. 28. 193. 166. 99. 16. 0. 34. 1. 35. 73. 18. 181. 37. 34.
      94. 45. 50. 44. 234. 6. 228. 223. 39. 130. 231. 6. 85. 252. 44.
      161. 192. 181. 12. 196. 227. 107. 144. 10. 164. 1. 113. 33. 184.
      57. 91. 77. 205. 177. 150. 235. 81. 100. 24. 182. 213. 68. 54.
      129. 122. 82. 8. 3. 120. 250. 113. 77. 24. 20. 106. 66. 0. 71.
      234. 111. 48. 229. 69. 171. 126. 93. 56. 43. 246. 134. 173. 206.
      53. 215. 190. 7. 84. 253. 14. 201. 64. 253. 128. 203. 123. 69.
      182. 174. 244. 6. 117. 33. 184. 181. 83. 196. 205. 225. 151. 123.
      241. 38. 24. 178. 49. 84. 54. 137. 122. 82. 24. 147. 248. 243. 97.
      13. 26. 20. 98. 192. 136. 194. 168. 240. 173. 26. 244. 21. 194.
      84. 103. 53. 4. 234. 27. 35. 155. 34. 17. 232. 191. 1. 160. 120.
      159. 16. 79. 243. 229. 130. 67. 97. 0. 238. 10. 163. 12. 86. 92.
      101. 151. 230. 102. 221. 130. 112. 64. 42. 248. 52. 165. 200. 106.
      18. 74. 109. 254. 82. 255. 39. 90. 208. 2. 91. 252. 122. 140. 96.
      48. 187. 85. 224. 108. 117. 51. 121. 235. 103. 24. 86. 183. 72.
      62. 145. 28. 96. 40. 17. 248. 176. 64. 69. 186. 85. 34. 194. 96.
      198. 179. 96. 50. 88. 169. 106. 9. 81. 24. 62. 60. 52. 237. 151.
      7. 194. 16. 151. 157. 109. 0. 8. 80. 201. 16. 198. 129. 33. 180.
      32. 136. 7. 83. 248. 55. 56. 108. 56. 207. 83. 120. 50. 172. 188.
      173. 215. 87. 130. 17. 30. 244. 205. 96. 40. 99. 232. 30. 251.
      197. 37. 185. 96. 130. 70. 115. 116. 50. 57. 104. 201. 105. 80.
      72. 130. 189. 177. 25. 19. 157. 65. 26. 201. 144. 77. 17. 26. 99.
      218. 16. 209. 193. 33. 127. 241. 73. 70. 50. 1. 4. 23. 221. 92.
      231. 97. 107. 86. 193. 195. 16. 210. 241. 32. 105. 89. 44. 42. 40.
      57. 250. 115. 31. 29. 166. 211. 68. 152. 8. 112. 160. 83. 50. 10.
      161. 34. 12. 56. 16. 44. 236. 150. 237. 143. 15. 194. 82. 166.
      197. 125. 133. 132. 65. 129. 64. 210. 225. 47. 177. 44. 128. 11.
      81. 168. 104. 122. 88. 77. 221. 87. 192. 211. 6. 228. 8. 34. 217.
      103. 52. 216. 248. 194. 74. 74. 39. 122. 187. 115. 221. 1. 59. 83.
      57. 126. 170. 73. 48. 121. 64. 99. 92. 81. 16. 105. 232. 54. 44.
      30. 29. 198. 182. 134. 85. 244. 8. 133. 96. 176. 192. 79. 249. 33.
      179. 74. 132. 78. 119. 82. 0. 159. 180. 11. 70. 104. 64. 189. 128.
      226. 3. 87. 255. 96. 82. 240. 245. 121. 128. 9. 195. 147. 194.
      209. 166. 202. 18. 32. 33. 37. 34. 122. 42. 18. 186. 75. 145. 16.
      72. 143. 148. 160. 171. 44. 202. 102. 148. 239. 187. 235. 129. 6.
      67. 138. 241. 154. 80. 11. 59. 19. 12. 47. 134. 37. 177. 185. 66.
      237. 109. 208. 137. 75. 57. 57. 88. 150. 248. 76. 58. 157. 26.
      114. 17. 151. 114. 218. 80. 15. 24. 85. 126. 216. 74. 210. 151.
      164. 96. 151. 218. 77. 229. 128. 64. 206. 18. 225. 24. 178. 208.
      101. 47. 201. 184. 74. 3. 11. 103. 218. 81. 145. 16. 155. 58. 81.
      9. 114. 162. 112. 52. 89. 225. 52. 15. 83. 23. 121. 160. 186. 104.
      151. 27. 0. 16. 150. 157. 95. 32. 169. 186. 209. 30. 245. 220. 1.
      50. 72. 136. 67. 43. 41. 177. 124. 65. 117. 31. 241. 25. 123. 184.
      125. 76. 219. 17. 68. 180. 157. 28. 194. 24. 131. 240. 249. 28.
      79. 221. 37. 52. 74. 138. 74. 161. 89. 3. 158. 229. 40. 14. 77.
      48. 164. 134. 166. 4. 215. 35. 2. 83. 0. 68. 108. 110. 40. 193.
      209. 12. 197. 251. 102. 16. 32. 240. 64. 32. 248. 118. 62. 100.
      40. 73. 85. 120. 163. 174. 180. 41. 19. 149. 64. 19. 200. 212.
      236. 98. 104. 103. 234. 24. 243. 193. 97. 59. 115. 184. 70. 115.
      224. 141. 26. 186. 25. 197. 18. 230. 158. 5. 168. 9. 166. 215. 32.
      80. 201. 123. 203. 65. 106. 11. 218. 63. 249. 181. 14. 123. 16. 8.
      165. 10. 58. 179. 236. 33. 178. 27. 121. 159. 43. 244. 60. 173.
      15. 13. 214. 18. 183. 223. 213. 181. 134. 216. 229. 220. 238. 223.
      61. 247. 103. 132. 15. 223. 80. 17. 159. 229. 0. 76. 65. 16. 32.
      136. 170. 72. 215. 55. 64. 114. 0. 212. 124. 72. 9. 65. 241. 0.
      209. 172. 97. 16. 32. 34. 6. 35. 75. 178. 104. 37. 97. 28. 120.
      23. 41. 109. 95. 237. 141. 14. 206. 242. 135. 15. 253. 4. 151.
      216. 180. 193. 78. 125. 28. 227. 14. 134. 139. 221. 114. 35. 90.
      44. 95. 193. 147. 72. 131. 132. 232. 171. 2. 200. 102. 18. 232.
      253. 227. 192. 14. 35. 202. 81. 114. 32. 1. 63. 113. 10. 102. 194.
      192. 212. 29. 247. 48. 78. 109. 53. 60. 11. 66. 112. 247. 55. 136.
      113. 38. 119. 125. 40. 121. 220. 33. 47. 229. 187. 118. 144. 32.
      128. 133. 41. 95. 182. 236. 165. 170. 6. 126. 184. 34. 187. 154.
      231. 221. 111. 219. 66. 55. 215. 253. 183. 220. 65. 207. 130. 238.
      231. 239. 212. 172. 246. 185. 81. 24. 162. 5. 183. 24. 203. 65.
      15. 54. 181. 130. 145. 183. 39. 0. 64. 73. 54. 105. 0. 40. 201.
      67. 61. 201. 194. 126. 17. 48. 8. 132. 120. 88. 5. 87. 229. 16.
      106. 107. 33. 52. 129. 203. 128. 215. 39. 136. 112. 114. 148. 44.
      168. 57. 144. 97. 12. 193. 166. 163. 64. 36. 162. 37. 32. 48. 177.
      31. 234. 89. 197. 147. 200. 142. 144. 160. 11. 118. 221. 96. 2.
      200. 249. 107. 67. 74. 99. 154. 49. 121. 128. 15. 59. 81. 10. 38.
      162. 200. 81. 156. 229. 32. 12. 89. 48. 33. 136. 38. 68. 223. 51.
      64. 114. 132. 85. 125. 72. 8. 68. 145. 64. 197. 187. 99. 0. 8.
      160. 3. 35. 50. 173. 26. 186. 153. 193. 146. 230. 142. 13. 168.
      41. 166. 200. 102. 0. 201. 107. 203. 81. 14. 43. 74. 183. 185.
      212. 30. 123. 80. 14. 175. 206. 43. 167. 98. 11. 243. 144. 186.
      255. 115. 69. 125. 231. 41. 74. 190. 180. 127. 139. 150. 140. 150.
      154. 44. 247. 54. 109. 154. 225. 127. 134. 234. 205. 75. 50. 97.
      1. 99. 28. 185. 16. 105. 232. 54. 236. 140. 14. 214. 182. 134. 85.
      222. 13. 133. 80. 165. 192. 6. 88. 47. 162. 78. 132. 11. 245. 1.
      158. 31. 183. 50. 142. 40. 54. 60. 1. 74. 196. 181. 35. 128. 96.
      38. 63. 50. 140. 163. 152. 85. 111. 164. 166. 58. 0. 44. 128. 161.
      169. 3. 34. 70. 137. 78. 25. 168. 72. 63. 96. 210. 199. 129. 138.
      148. 196. 126. 141. 106. 133. 5. 211. 71. 208. 20. 48. 139. 170.
      13. 12. 59. 148. 18. 77. 22. 190. 67. 128. 172. 103. 172. 0. 74.
      66. 173. 130. 33. 195. 162. 43. 42. 203. 66. 153. 18. 233. 180.
      224. 10. 10. 0. 80. 169. 136. 75. 185. 104. 33. 113. 158. 123. 21.
      41. 101. 111. 133. 157. 15. 82. 48. 166. 15. 241. 205. 150. 152.
      180. 193. 239. 253. 140. 229. 174. 134. 139. 212. 18. 163. 108.
      161. 58. 15. 91. 29. 47. 165. 190. 141. 191. 15. 86. 18. 166. 151.
      125. 213. 142. 152. 85. 220. 239. 221. 13. 180. 101. 134. 143. 90.
      124. 105. 82. 106. 57. 217. 82. 176. 225. 136. 188. 40. 95. 209.
      169. 240. 18. 248. 204. 122. 90. 35. 200. 44. 250. 205. 37. 121.
      114. 187. 74. 3. 124. 225. 104. 106. 93. 153. 70. 224. 225. 0.
      253. 8. 83. 217. 26. 176. 88. 224. 196. 106. 92. 50. 216. 61. 119.
      201. 37. 121. 99. 155. 218. 130. 66. 166. 236. 27. 238. 185. 189.
      143. 218. 247. 4. 183. 228. 236. 94. 11. 135. 67. 235. 21. 182.
      105. 238. 241. 110. 19. 95. 255. 212. 92. 157. 206. 86. 107. 148.
      175. 170. 12. 30. 152. 175. 16. 138. 197. 239. 227. 73. 82. 150.
      81. 109. 214. 2. 1. 219. 241. 160. 244. 15. 30. 152. 243. 1. 0.
      115. 224. 128. 170. 93. 137. 194. 204. 203. 169. 184. 77. 162.
      200. 76. 148. 216. 232. 78. 81. 14. 35. 206. 185. 152. 20. 129.
      127. 89. 15. 90. 142. 47. 180. 160. 65. 213. 127. 193. 59. 91.
      121. 189. 28. 194. 120. 94. 180. 153. 138. 86. 61. 159. 122. 125.
      151. 15. 94. 21. 118. 219. 78. 218. 214. 239. 7. 135. 190. 153.
      164. 74. 8. 134. 82. 203. 213. 231. 226. 57. 203. 220. 99. 107.
      247. 47. 67. 219. 186. 160. 240. 139. 24. 152. 127. 56. 20. 76.
      189. 151. 243. 179. 224. 53. 135. 190. 83. 74. 48. 252. 247. 104.
      107. 135. 123. 57. 144. 19. 88. 186. 113. 237. 134. 95. 106. 128.
      81. 165. 59. 213. 76. 237. 119. 132. 106. 111. 177. 112. 226. 71.
      144. 243. 101. 153. 123. 49. 230. 120. 174. 233. 244. 253. 42.
      231. 239. 245. 0. 229. 243. 210. 120. 230. 96. 224. 69. 109. 123.
      198. 136. 91. 178. 181. 154. 67. 104. 221. 62. 27. 204. 117. 122.
      44. 118. 237. 130. 30. 94. 197. 63. 199. 253. 90. 132. 41. 51. 60.
      65. 61. 31. 243. 25. 110. 173. 61. 12. 211. 9. 86. 34. 140. 12.
      110. 60. 150. 240. 249. 24. 79. 217. 33. 53. 66. 138. 75. 161. 40.
      164. 149. 123. 249. 237. 112. 175. 31. 57. 32. 24. 174. 147. 72.
      157. 129. 27. 194. 16. 50. 120. 90. 247. 15. 222. 20. 127. 210. 8.
      198. 170. 32. 188. 56. 186. 249. 201. 16. 207. 159. 21. 32. 57.
      166. 157. 96. 16. 137. 27. 195. 16. 58. 74. 90. 55. 239. 214. 28.
      123. 208. 8. 135. 11. 116. 96. 232. 117. 200. 99. 93. 200. 18.
      182. 164. 137. 83. 239. 75. 27. 29. 220. 225. 178. 8. 102. 235. 0.
      75. 195. 197. 61. 225. 243. 70. 242. 161. 76. 12. 189. 13. 175.
      198. 166. 214. 146. 224. 1. 163. 104. 49. 139. 201. 98. 106. 7.
      108. 237. 66. 63. 160. 210. 214. 17. 89. 120. 88. 142. 33. 140.
      28. 93. 221. 157. 196. 167. 222. 19. 96. 16. 162. 56. 20. 129.
      201. 42. 98. 8. 54. 104. 83. 61. 47. 219. 84. 89. 89. 8. 218. 138.
      97. 112. 152. 69. 96. 60. 99. 16. 106. 172. 46. 12. 222. 19. 197.
      54. 148. 84. 104. 74. 128. 112. 241. 64. 71. 189. 1. 32. 66. 179.
      75. 160. 69. 196. 181. 87. 164. 62. 110. 152. 119. 155. 35. 80.
      211. 115. 217. 255. 145. 86. 60. 58. 185. 228. 105. 34. 175. 255.
      101. 68. 170. 241. 192. 37. 9. 157. 23. 239. 48. 142. 111. 176.
      172. 72. 78. 96. 255. 119. 160. 240. 54. 118. 92. 110. 193. 152.
      41. 45. 224. 239. 34. 0. 2. 162. 33. 33. 77. 240. 157. 181. 168.
      44. 41. 152. 186. 251. 6. 84. 221. 247. 201. 234. 151. 85. 124.
      190. 145. 68. 251. 64. 141. 139. 111. 252. 136. 113. 9. 49. 1. 4.
      31. 91. 149. 231. 33. 75. 86. 65. 67. 16. 210. 176. 40. 104. 89.
      62. 42. 24. 57. 250. 113. 22. 141. 166. 210. 68. 144. 72. 240.
      160. 64. 11. 159. 238. 13. 140. 67. 48. 165. 12. 174. 0. 231. 227.
      34. 86. 64. 102. 108. 76. 8. 129. 99. 45. 225. 246. 65. 16. 34.
      162. 68. 96. 95. 148. 168. 165. 182. 14. 126. 184. 62. 226. 10.
      199. 221. 58. 80. 98. 183. 69. 125. 181. 133. 208. 157. 206. 239.
      255. 207. 212. 172. 102. 25. 19. 116. 48. 153. 161. 136. 109. 65.
      9. 2. 49. 161. 93. 151. 21. 72. 26. 201. 149. 73. 16. 25. 99. 219.
      16. 221. 128. 33. 124. 216. 73. 198. 50. 91. 56. 42. 161. 34. 28.
      56. 18. 62. 224. 70. 237. 157. 158. 66. 112. 182. 77. 253. 133.
      133. 216. 149. 64. 198. 225. 43. 128. 44. 132. 11. 83. 248. 54.
      60. 108. 56. 15. 87. 56. 33. 174. 180. 237. 215. 39. 2. 19. 132.
      212. 205. 34. 232. 227. 193. 30. 251. 211. 97. 177. 104. 160. 6.
      115. 8. 50. 24. 161. 96. 15. 121. 18. 62. 108. 118. 237. 151. 7.
      130. 16. 150. 29. 101. 4. 136. 144. 209. 16. 196. 225. 33. 160.
      40. 128. 7. 211. 111. 50. 224. 64. 171. 93. 89. 154. 107. 244.
      180. 173. 11. 28. 215. 190. 143. 213. 253. 21. 143. 98. 254. 146.
      75. 93. 5. 255. 207. 164. 78. 87. 95. 48. 229. 101. 139. 92. 93.
      26. 99. 242. 134. 12. 91. 60. 87. 254. 39. 213. 253. 140. 205. 64.
      253. 192. 219. 251. 197. 53. 175. 244. 78. 116. 73. 48. 57. 64. 1.
      93. 17. 16. 96. 108. 36. 12. 26. 21. 66. 176. 4. 20. 213. 8. 129.
      96. 176. 0. 67. 201. 33. 50. 66. 0. 6. 115. 105. 58. 17. 96. 33.
      220. 81. 18. 97. 236. 36. 108. 142. 23. 194. 150. 128. 100. 204.
      8. 13. 104. 240. 32. 131. 241. 1. 51. 74. 132. 78. 117. 73. 24.
      165. 37. 1. 94. 109. 51. 165. 230. 134. 140. 223. 55. 146. 246. 4.
      116. 249. 172. 137. 200. 181. 128. 195. 251. 89. 16. 42. 164. 1.
      120. 67. 51. 97. 1. 98. 28. 184. 16. 105. 200. 86. 236. 140. 14.
      214. 166. 166. 77. 247. 205. 133. 80. 165. 192. 22. 120. 171. 130.
      79. 134. 3. 245. 17. 130. 21. 191. 58. 10. 40. 184. 46. 144. 90.
      225. 245. 99. 136. 67. 55. 87. 125. 173. 1. 192. 75. 61. 236. 163.
      111. 132. 44. 162. 1. 33. 72. 50. 48. 0. 32. 93. 1. 16. 97. 236.
      52. 236. 10. 4. 130. 52. 4. 4. 196. 0. 128. 96. 160. 0. 64. 209.
      33. 176. 66. 132. 6. 113. 110. 184. 128. 186. 137. 149. 16. 204.
      139. 21. 129. 29. 236. 250. 110. 154. 193. 67. 249. 149. 30. 75.
      218. 241. 155. 81. 223. 127. 154. 68. 155. 94. 192. 45. 89. 227.
      50. 203. 43. 39. 60. 32. 42. 24. 183. 23. 0. 113. 166. 23. 90. 40.
      33. 184. 209. 111. 245. 168. 58. 16. 64. 128. 131. 40. 90. 184.
      144. 186. 137. 149. 24. 206. 171. 21. 129. 157. 172. 207. 106.
      150. 141. 243. 233. 145. 30. 75. 154. 241. 155. 81. 159. 123. 146.
      4. 175. 30. 88. 176. 186. 112. 139. 124. 81. 7. 163. 23. 165. 24.
      30. 183. 74. 58. 161. 147. 233. 16. 26. 75. 178. 64. 219. 209. 80.
      123. 226. 64. 167. 98. 231. 44. 224. 81. 237. 61. 228. 155. 219.
      251. 52. 92. 136. 56. 215. 191. 129. 76. 114. 28. 182. 124. 214.
      194. 14. 26. 85. 110. 202. 236. 218. 133. 237. 96. 232. 69. 108.
      27. 235. 152. 82. 246. 53. 141. 219. 141. 223. 174. 27. 76. 243.
      127. 165. 118. 252. 130. 78. 89. 229. 189. 207. 191. 90. 212. 125.
      13. 140. 172. 153. 45. 78. 138. 134. 18. 136. 141. 247. 227. 11.
      218. 217. 194. 233. 55. 14. 3. 219. 57. 225. 247. 207. 61. 152.
      127. 24. 18. 103. 64. 133. 14. 137. 22. 78. 41. 163. 195. 139. 72.
      194. 226. 28. 246. 209. 228. 120. 175. 93. 195. 223. 0. 185. 62.
      207. 92. 136. 119. 178. 36. 252. 105. 236. 119. 205. 88. 214. 228.
      193. 182. 164. 11. 67. 57. 87. 187. 104. 244. 241. 99. 76. 123.
      255. 168. 119. 107. 197. 61. 103. 63. 94. 202. 100. 161. 184. 64.
      173. 253. 208. 200. 203. 177. 45. 24. 142. 208. 77. 190. 129. 26.
      74. 24. 18. 97. 186. 208. 143. 217. 17. 127. 192. 73. 207. 166.
      52. 97. 173. 101. 152. 79. 87. 136. 2. 180. 172. 9. 211. 101. 65.
      26. 25. 212. 105. 80. 24. 99. 235. 0. 235. 149. 133. 53. 225. 251.
      70. 226. 233. 102. 57. 69. 48. 47. 235. 16. 120. 164. 238. 8. 147.
      2. 87. 48. 176. 76. 64. 110. 128. 180. 240. 10. 85. 173. 1. 48.
      64. 243. 71. 224. 33. 140. 151. 126. 13. 141. 132. 167. 220. 27.
      242. 0. 230. 248. 36. 163. 201. 99. 106. 3. 101. 233. 74. 45. 161.
      186. 86. 26. 80. 120. 97. 174. 69. 164. 189. 101. 168. 62. 72.
      152. 126. 187. 2. 112. 215. 115. 201. 122. 151. 84. 124. 58. 161.
      196. 235. 0. 143. 251. 103. 212. 136. 241. 65. 33. 89. 205. 95.
      207. 48. 222. 79. 176. 229. 0. 238. 0. 255. 115. 184. 244. 50. 98.
      92. 106. 75. 137. 61. 111. 227. 189. 2. 0. 34. 130. 41. 40. 109.
      48. 149. 186. 205. 237. 1. 8. 198. 83. 201. 24. 214. 240. 105.
      232. 201. 42. 106. 26. 19. 34. 250. 48. 133. 167. 83. 120. 152.
      75. 177. 162. 112. 141. 25. 111. 24. 204. 67. 140. 39. 101. 174.
      8. 243. 103. 8. 116. 16. 214. 104. 8. 11. 8. 249. 51. 163. 245.
      16. 25. 0. 138. 198. 120. 124. 176. 29. 161. 137. 109. 65. 152.
      38. 121. 163. 92. 215. 23. 72. 154. 1. 212. 232. 16. 27. 96. 249.
      16. 201. 193. 37. 116. 200. 9. 135. 114. 83. 60. 243. 181. 18.
      206. 58. 6. 124. 224. 2. 131. 157. 30. 80. 96. 166. 127. 121. 133.
      165. 217. 149. 238. 185. 237. 27. 2. 44. 4. 1. 26. 224. 52. 29.
      36. 40. 15. 84. 48. 41. 234. 178. 109. 215. 55. 0. 19. 134. 213.
      125. 38. 105. 66. 209. 12. 227. 243. 97. 178. 72. 112. 2. 19. 123.
      56. 233. 100. 11. 93. 89. 31. 123. 224. 36. 141. 27. 60. 86. 54.
      135. 221. 245. 28. 141. 90. 244. 128. 219. 217. 21. 59. 239. 164.
      78. 126. 121. 40. 239. 116. 13. 84. 93. 55. 99. 250. 166. 8. 27.
      63. 86. 242. 193. 228. 253. 140. 141. 75. 241. 128. 219. 251. 213.
      57. 35. 228. 126. 110. 73. 56. 57. 64. 32. 92. 89. 18. 96. 72. 36.
      8. 26. 23. 146. 50. 6. 84. 85. 8. 129. 64. 176. 0. 67. 233. 32. 0.
      66. 128. 70. 97. 89. 56. 47. 116. 33. 220. 89. 23. 225. 97. 6. 24.
      191. 183. 146. 246. 38. 166. 253. 140. 157. 73. 180. 128. 195.
      251. 208. 17. 34. 132. 142. 126. 195. 107. 104. 131. 118. 153.
      250. 64. 233. 72. 144. 239. 153. 142. 214. 32. 174. 165. 95. 207.
      196. 7. 196. 232. 54. 24. 170. 130. 77. 134. 59. 213. 90. 50. 104.
      64. 34. 93. 25. 16. 41. 236. 52. 173. 26. 29. 214. 16. 38. 20.
      213. 4. 133. 96. 176. 64. 83. 25. 33. 178. 107. 132. 14. 115. 124.
      100. 161. 101. 25. 79. 67. 136. 178. 164. 172. 8. 243. 213. 65.
      18. 152. 244. 105. 90. 72. 103. 217. 10. 233. 213. 5. 61. 194. 59.
      70. 34. 32. 23. 159. 92. 168. 67. 36. 127. 164. 138. 250. 100.
      112. 243. 161. 83. 200. 114. 106. 32. 104. 235. 3. 12. 226. 163.
      118. 17. 200. 120. 164. 139. 34. 154. 28. 153. 122. 169. 145. 162.
      159. 29. 112. 249. 164. 227. 164. 28. 207. 59. 231. 0. 50. 106.
      66. 125. 12. 18. 112. 251. 208. 9. 5. 187. 68. 22. 157. 101. 184.
      46. 83. 184. 122. 186. 187. 120. 215. 51. 197. 122. 151. 85. 108.
      58. 177. 192. 201. 14. 204. 191. 101. 148. 128. 227. 1. 33. 96.
      181. 57. 107. 16. 206. 67. 136. 119. 81. 234. 8. 243. 87. 8. 112.
      145. 158. 72. 104. 43. 2. 249. 63. 231. 181. 1. 60. 80. 10. 70.
      114. 108. 48. 153. 225. 137. 109. 81. 144. 54. 249. 102. 88. 151.
      23. 73. 56. 145. 220. 108. 24. 27. 112. 249. 0. 205. 209. 37. 116.
      168. 9. 134. 51. 194. 12. 63. 247. 50. 202. 187. 32. 188. 0. 10.
      160. 253. 254. 176. 99. 166. 119. 121. 131. 96. 201. 164. 110.
      229. 34. 42. 128. 4. 32. 5. 96. 65. 48. 159. 164. 40. 79. 21. 48.
      40. 234. 178. 104. 215. 55. 128. 115. 134. 85. 125. 35. 65. 65.
      193. 0. 133. 179. 107. 144. 8. 112. 3. 49. 73. 40. 57. 64. 37. 76.
      89. 18. 97. 68. 36. 8. 27. 31. 16. 52. 130. 20. 85. 8. 128. 104.
      176. 96. 67. 217. 16. 0. 66. 128. 70. 106. 80. 22. 63. 229. 34. 6.
      189. 53. 172. 10. 211. 224. 221. 247. 160. 67. 166. 85. 125. 169.
      96. 209. 131. 72. 208. 227. 106. 128. 4. 240. 33. 33.</data></samples>
  <responses type_id="opencv-matrix">
    <rows>411</rows>
    <cols>1</cols>
    <dt>f</dt>
    <data>
      1. 1. 1. 1. 1. 1. 1. 1. 1. 1. 1. 1. 1. 1. 1. 1. 1. 1. 1. 1. 1. 1.
      1. 1. 1. 1. 1. 1. 1. 1. 1. 1. 1. 1. 1. 1. 1. 1. 1. 1. 1. 1. 1. 1.
      1. 1. 1. 1. 1. 1. 1. 1. 1. 1. 1. 1. 1. 1. 1. 1. 1. 1. 1. 1. 1. 1.
      1. 1. 1. 1. 1. 1. 1. 1. 1. 1. 1. 1. 1. 1. 1. 1. 1. 1. 1. 1. 1. 1.
      1. 1. 1. 1. 1. 1. 1. 1. 1. 1. 1. 1. 1. 1. 1. 1. 1. 1. 1. 1. 1. 1.
      1. 1. 1. 1. 1. 1. 1. 1. 1. 1. 1. 1. 1. 1. 1. 1. 1. 1. 1. 1. 1. 1.
      1. 1. 1. 1. 1. 1. 1. 1. 1. 1. 1. 1. 1. 1. 1. 1. 1. 1. 1. 1. 1. 1.
      1. 1. 1. 1. 1. 1. 1. 1. 1. 1. 1. 1. 1. 1. 1. 1. 1. 1. 1. 1. 1. 1.
      1. 1. 1. 1. 1. 1. 1. 1. 1. 1. 1. 1. 1. 1. 1. 1. 1. 1. 1. 1. 1. 1.
      1. 1. 1. 1. 1. 1. 1. 1. 1. 1. 1. 1. 1. 1. 1. 1. 1. 1. 1. 1. 1. 1.
      1. 1. 1. 1. 1. 1. 1. 1. 1. 1. 1. 1. 1. 1. 1. 1. 1. 1. 1. 1. 1. 1.
      1. 1. 1. 1. 1. 1. 1. 1. 1. 1. 1. 1. 1. 1. 1. 1. 1. 1. 1. 1. 1. 1.
      1. 1. 1. 1. 1. 1. 1. 1. 1. 1. 1. 1. 1. 1. 1. 1. 1. 1. 1. 1. 1. 1.
      1. 1. 1. 1. 1. 1. 1. 1. 1. 1. 1. 1. 1. 1. 1. 1. 1. 1. 1. 1. 1. 1.
      1. 1. 1. 1. 1. 1. 1. 1. 1. 1. 1. 1. 1. 1. 1. 1. 1. 1. 1. 1. 1. 1.
      1. 1. 1. 1. 1. 1. 1. 1. 1. 1. 1. 1. 1. 1. 1. 1. 1. 1. 1. 1. 1. 1.
      1. 1. 1. 1. 1. 1. 1. 1. 1. 1. 1. 1. 1. 1. 1. 1. 1. 1. 1. 1. 1. 1.
      1. 1. 1. 1. 1. 1. 1. 1. 1. 1. 1. 1. 1. 1. 1. 1. 1. 1. 1. 1. 1. 1.
      1. 1. 1. 1. 1. 1. 1. 1. 1. 1. 1. 1. 1. 1. 1.</data></responses></opencv_ml_knn>
</opencv_storage>
